svm_type c_svc
kernel_type rbf
gamma 2
nr_class 38
total_sv 86
rho 0 0 0 0 0 2.16197 0.190236 0.0266377 0 0 0.325411 0 0 0 0.647786 0 1.15663 0 0 0 0.0822861 0 0 0.882671 0.496231 0 0 0 0 0 0 0 0 0 0 0.47104 0 0 0 0 0 0.68358 0 0.0309452 0 0 0.345706 0 0 0 0.657598 0 0.337009 0 0 0 0.00774313 0 0 0 0.493345 0 0 0 0 0 0 0 0 0 0 0.559089 0 0 0 0 0.796914 0 0.00599058 0.0104274 0 0.313082 0 0 0 1.09597 0 0.319254 0 0 0 0 0 0 0 0.485103 0 0 0 0 0 0 0 0 0 0 1.50378 0 0.0121663 0 1.87616 0 0.0331291 0 0 0.303818 0 0 0 1.13784 0 2.09969 0 0 0 0.0224309 0 0 0 0.501332 0 0 0 0 0 0 0 0 0 0 0.486857 0 -0.0206295 2.04406 0 0.16427 0.203471 0 0.602679 -0.0169959 -0.00764711 0 2.29663 -0.0107609 2.0932 -0.00474402 -0.00713071 0 0 0 0 0 0.513363 -1.07835 0 -0.0115538 -0.00713073 0 -0.493257 0 -0.00105225 0 -0.0173716 0.78503 -2.77556e-017 1.55188 0 0.0354484 0 0 0.285498 0 0 0 1.16457 0 2.03696 0 0 0 0.016667 0 0 0 0.498429 0 0 0 0 0 0 0 0 0 0 0.491184 0 -0.460925 -0.4689 -0.727094 -0.437508 0.0950604 -1.44009 -2.02415 -1.20917 0.172714 -2.01544 -1.342 -0.231365 -0.222517 -1.9885 -0.166564 -0.00339469 -0.911704 -0.276046 0.0120504 -1.63944 -2.22988 -1.8591 -0.222517 -2.26578 -1.69277 -1.22125e-015 -1.45181 -2.36864 -0.419388 -0.156831 -6.66134e-016 0.0196972 0 -0.00140536 0.336925 0 0 0 0.263387 0 -0.295493 -0.00330923 -0.00373695 0 0.107471 0 -0.857989 1.00637 0.503897 0 -0.518682 0 -0.00373695 0 0 0 0 -0.865603 0 0.458176 0 -0.276537 -0.0211776 4.67789 -0.038739 -0.0300722 -0.0523184 0.905804 -0.0342896 0 -0.0416166 -0.0450135 -0.0327733 -0.0104585 -0.406461 -0.0213585 -0.0259677 0.492382 -0.112386 -0.0253784 -0.0304308 -0.0450135 -0.0335523 -0.059879 -0.017714 -0.0360536 -0.021827 0 0.684847 -0.0224031 0 3.17875 0 0 -0.0116249 2.19241 0 1.15568 -0.00775812 -0.013298 0 -0.00102126 -0.0286193 0 0 0.483083 -0.261966 0 0 -0.013298 0 0 0 0 0 0 0.980476 2.77556e-017 0.341653 0 0 0 0.448851 0 0.221662 0 0 0 0.00125502 0 0 0.0477299 0.481403 0 0 0 0 0 0 0 0 0 0 0.440791 0 -0.217761 -0.312699 -0.308617 -0.283212 -0.294674 0.549712 -0.325165 -0.304529 -0.305976 -0.340636 -1.83362 -0.338831 -0.327417 0.145601 -1.06097 -0.329703 -0.30879 -0.304529 -0.286317 -0.108219 -0.3339 -0.282959 -0.331906 -0.651639 0.0209348 -0.330411 0 0 1.29692 0 1.63296 0 0 0 0 0 0 0 0.496218 0 0 0 0 0 0 0 0 0 0 0.492631 0 0 0.895793 0 1.62952 0 0 0 0.0609503 0 0 0 0.499522 0 0 0 0 0 0 0 0 0 0 0.47803 0 1.38429 0 0.6315 0 0 0 0 0 0 0 0.503774 0 0 0 0 0 0 0 0 0 0 0.75534 0 -1.21596 -1.53304 -0.386972 -0.36476 -1.28447 4.996e-016 -0.565874 -0.244334 -0.437744 -0.424234 -2.10324 -0.614712 -0.930971 -0.364739 -1.31443 -1.54861 -0.20227 -1.16638 -0.553144 -0.617404 -0.325121 -0.234267 2.02194 0 0 0 0.0168056 0 0 0 0.502403 0 0 0 0 0 0 0 0 0 0 0.485808 0 -0.12504 -0.120409 -2.114 0.0706061 -0.0567765 -0.403323 0.0534115 0.399967 -1.15387 -1.54514 -1.86207 -0.120409 -2.02749 -1.15551 -4.44089e-016 -1.93596 -1.49978 0 0.7202 2.77556e-017 0 0 0.0102268 0 0 0.0140545 0.40449 0 0 0 0 0 0 0 0 0 0 0.434324 0 0 0.010138 0 0 0.0141264 0.401915 0 0 0 0 0 0 0 0 0 0 0.388933 0 0 0 0 0 0.506242 0 0 0 0 0 0 0 0 0 0 0.481553 0 3.46945e-017 -0.144278 -0.00548267 0.510448 0 -0.121189 -0.0418938 -0.010138 0 0 -0.266476 -0.0114678 -0.2115 2.77556e-017 0.469238 0 0 0 0.455796 0 0 0 0 0 0 0 0 0 0 0.499114 0 1.24752 0.491838 0 0 0 0 0 0 0 0 0 0 0.453782 0 0.497669 0 -0.808015 0 -0.0141991 0 0 -0.342529 0 -0.751892 0 0.466316 0 -0.506005 -0.499171 -0.497056 -0.400622 -0.504797 -0.50525 -0.480986 -0.498722 -0.504409 -0.458406 -0.0839151 -0.476656 0 0 0 0 0 0 0 0 0 0.721494 0 0 0 0 0 0 0 0 0 0.469766 0 0 0 0 0 0 0 0 0.483951 0 0 0 0 0 0 0 0.388916 0 0 0 0 0 0 0.480681 0 0 0 0 0 0.599506 0 0 0 0 0.426402 0 0 0 0.490716 0 0 0.463864 0 3.17577 0 -0.420619
label 48 49 50 51 52 53 54 55 56 57 65 66 67 68 69 70 71 72 73 74 75 76 77 78 79 80 81 82 83 84 85 86 87 88 89 90 45 46
nr_sv 1 1 1 1 5 1 3 6 5 5 1 6 1 1 1 4 1 7 1 1 1 5 1 1 4 4 1 1 1 1 1 1 1 1 1 1 6 1
SV
4.111244526824564 4.021543517420991 26.31414706371339 4.912103551911368 18.64787786836504 32 32 1.869018001752423 2.617421848490404 4.070039586368782 3.127916385617998 12.36461776452181 32 4.90973456403365 8.601645428061964 29.6438193511909 32 1.027161926762249 1.000000064685022 19.77489185653163 12.11852910818879 1.220535734957643 32 32 2.594967277521351 3.192490807221478 32 32 1.000000000000038 32 6.096341079660205 7.147221408074378 14.19203709828728 32 1.865198274127364 4.843321328516906 5.412642456289208 1:-0.680812 2:-0.961563 3:-0.999942 4:-0.998956 5:-0.966197 6:-0.734475 7:-0.811475 
-4.111244526824564 10.26756148401287 8.242938785777735 4.398347750493127 8.811924017895692 4.70036009246998 3.553084972848698 2.186677832805763 2.874337212276587 2.754675927066145 3.132775432018902 6.05837078615169 5.194794064071295 8.744833150815026 4.887026877249758 7.158229959816808 7.347940488484782 1.150465167975987 1.000000230976664 6.210462256482089 3.011520579661599 1.290539019639506 3.241282632651894 3.501628485695102 2.454068760123687 3.093190735333621 4.406831143867513 6.70786249558699 1.000000000000351 4.791436812794517 3.600803382827198 2.274972063236277 9.18382131164322 3.76397782519053 3.953636275801286 10.71668261773313 2.194445483570974 1:-0.565968 2:-0.625166 3:-0.931428 4:-0.922547 5:-0.96338 6:-0.684887 7:-0.811475 
-4.021543517420991 -10.26756148401287 8.084458542927262 11.28048421344228 11.39206266538377 4.848525768774137 2.928689757695371 4.280102943607557 6.67698441806668 2.257156764427549 7.39874162176521 13.05663613646216 5.120950176302244 16.67866178749768 7.086582976406137 7.479580877806256 32 1.154554685227298 1.000000122326043 5.937841225932357 2.382281630426927 1.596640597992591 2.718090631124515 3.519008104290672 2.219027713710986 6.09008947528331 3.87826066051405 6.824844930715108 1.000000000000104 5.597669008090608 6.323100748081367 1.852381237608144 11.08422501935767 3.303599157698407 9.033447068838427 32 1.746626177359448 1:-0.387877 2:-0.723059 3:-0.987671 4:-0.988831 5:-0.966197 6:-0.733574 7:-0.811475 
-26.31414706371339 -8.242938785777735 -8.084458542927262 8.125850430992106 32 16.77456023670284 12.60736714041061 2.344412397980526 3.602885019690307 4.063633791791164 4.285123207881528 32 32 12.18496918390736 9.996345953373064 32 32 1.0527765331307 1.000000117107596 32 6.961894060090051 1.321513357100891 9.740694293490883 17.48140182845378 2.845657192166083 4.556946979896944 26.69762704959772 32 1.000000000000088 32 9.169175309511019 4.027528089348182 32 17.2634052829847 2.571308720589225 10.18818075542477 3.460222901731925 1:-0.598855 2:-0.863704 3:-0.969973 4:-0.954697 5:-0.966197 6:-0.749352 7:-0.811475 
0 0 0 0 0 0 0 0 9.171987559827397 0 4.064812651741003 0 0 0 0 0 32 0 0 0 0 0 0 0 0 0 0 0 0 0 0 0 0 0 0 0 0 1:-0.329057 2:-0.925548 3:-0.958135 4:-0.880271 5:-0.969014 6:-0.716218 7:-0.803279 
0 0 0 0 0 14.63845262423432 0 0 0 0 0 0 0 0 0 0 0 0 0.4069136720937997 0 0 0 0 0 3.68276249825067 10.44104466682939 0 0 0.4069101594113841 0 0 0 0 0 0 0 0 1:-0.345998 2:-0.95635 3:-0.95825 4:-0.798539 5:-0.969014 6:-0.702919 7:-0.786885 
-4.912103551911368 0 0 -6.252895241963518 4.854048321423499 0 3.780163466250585 0 0 0 0 2.307359979167037 5.524526568404606 0 1.992534485447967 7.724934093717777 14.95212553796782 0 0 8.68908525728207 3.181306740426575 0 3.024803720224493 4.644735337656034 0 0 4.627702193530734 4.954714385993259 0 10.47905995104381 25.88073472391228 1.967471871067225 0.1229307396339578 4.553461707256106 0 0 1.792206209273087 1:-0.377904 2:-0.936383 3:-0.972715 4:-0.860856 5:-0.96338 6:-0.695255 7:-0.803279 
0 -4.398347750493127 -11.28048421344228 -1.872955189028587 4.936823415584676 0 0 0 0 2.533961320319278 0 15.7433319601463 1.100420228490065 17.0922953729041 0 1.529443411632279 32 0.4630370510180533 0.3770123951290758 0 0 0 0 0 0 0 0 1.899393057607211 0.377019278832985 0 6.119265276087721 0 11.02838795414809 0 2.248647857853902 17.89082148153981 0 1:-0.351186 2:-0.910952 3:-0.944189 4:-0.903967 5:-0.966197 6:-0.709005 7:-0.803279 
0 0 0 0 0 0 0 13.11273671836246 32 0 32 0 0 0 14.0506458300161 0 0 0.6120855145211046 0.2235878155903734 0 0 2.564336630688159 0 0 0 21.55895533317061 0 0 0.2235840692954983 0 0 0 0 0 1.695466563528998 0 0 1:-0.27546 2:-0.917302 3:-0.941562 4:-0.84739 5:-0.969014 6:-0.706075 7:-0.795082 
-18.64787786836504 -8.811924017895692 -11.39206266538377 -32 -9.790871737008175 12.43708523187695 8.782149282576162 2.596133166858188 4.143841336168475 3.429802694334244 5.005581962445129 32 28.10235107302464 12.78841869126394 8.64290126560827 32 32 1.061814390745379 1.000000101662987 28.07122372696456 5.28001126161843 1.364617708616998 7.45395640622362 13.23390429463339 2.68430224213187 5.122244733715093 17.32519457935027 32 1.000000000000076 32 9.895569670649341 3.398697057978064 32 11.5485197475975 2.936428891973993 15.06578256433863 2.979832881429506 1:-0.558608 2:-0.85164 3:-0.995987 4:-0.977871 5:-0.966197 6:-0.725459 7:-0.811475 
-28.81820818967321 -3.258105069965341 -2.596637532917208 -13.15405144962631 -4.440094664416522 -9.29475954336715 32 0.7487403764639037 1.160253502178432 3.819094887256769 2.254055693342338 6.384846480354974 18.00516133855218 3.74775755406296 11.5168074396807 13.33260900387143 32 0.617510588532226 0.6108783804741335 12.13627646125976 32 0.00295174854502026 32 32 2.468332118454446 3.328084983519067 29.23655103139428 16.57493412438113 0.6114896655510166 13.52470456476 4.811413423921665 19.57455725341358 7.985692436198752 28.68808928311134 1.021597724351164 3.011813144921987 12.87907930776127 1:-0.799447 2:-0.935353 3:-0.989317 4:-0.992589 5:-0.966197 6:-0.735828 7:-0.811475 
0 -0.4209931874667664 0 0 0 0 0 0 0 0.5249471470540059 0 0 0 0 0 0 0 0.6545094150031718 0.6114907374596955 0 0.3582044935108291 0.03734080826474598 0 0 3.15603813173209 0 0 0 0.6108787238442726 0 0 0 0 0 0 1.325134779784756 0 1:-0.166004 2:-0.935614 3:-0.949906 4:-0.512109 5:-0.938028 6:-0.630339 7:-0.885246 
-3.181791810326788 -1.021261835037873 -2.251888235856929 -3.620508787076535 -10.1983579598178 -3.1423256885098 1.881078850240713 13.69374063903906 21.43315684498417 0.2097550853923821 12.24967317925888 3.308382684637151 3.69127753873794 3.575665251155448 9.896274633640646 3.954233241437715 3.608239239075134 0 0 4.000963307242818 0 4.45826460928318 0 2.034498714595296 0 9.748109847935217 2.763448968605724 3.388655432617174 0 4.59344502512355 5.47814637973242 0 3.030663286142279 3.311910716888658 1.676667079975714 4.197720968943616 0 1:-0.17056 2:-0.976611 3:-0.973639 4:-0.619207 5:-0.960563 6:-0.700214 7:-0.860656 
0 0 0 0 0 0 -32 0 0 0 0 0 0 0 0 0 0 0 0 0 11.94240859529735 0 0 32 0 0 0 0 0 0 0 0 0 0 0 0 0 1:-0.798978 2:-0.98273 3:-0.991078 4:-0.95501 5:-0.966197 6:-0.729742 7:-0.811475 
0 0 0 0 0 0 0 0 0 0 0 0 0 0 0 0 0 0.3270164536388543 0.49999889749329 0 32 0 0 0 0 0 0 0 0.4999999999989028 0 0 32 0 0 0 0 17.0647745153583 1:-0.840117 2:-0.99259 3:-0.997835 4:-0.948539 5:-0.966197 6:-0.729742 7:-0.811475 
0 0 0 0 0 0 0 0 0 0 0 0 0 0 0 0 0 0 0 0 32 0 0 31.0727294440795 0 0 0 0 0 0 0 0 0 0 0 0 0 1:-0.805219 2:-0.996159 3:-0.986603 4:-0.948225 5:-0.966197 6:-0.738307 7:-0.811475 
-10.52239283050587 0 0 0 0 0 0 0 0 0.2925200857248806 0 0 0 0 0 0 31.2934323967702 0 0 0 0 0 0 32 0 0 0.1456629059181475 0 0 0 0 0 0 0 0 0 0 1:-0.786581 2:-0.996096 3:-0.986805 4:-0.954384 5:-0.966197 6:-0.738082 7:-0.811475 
0 0 0 0 0 0 -1.449305087472442 0 0 0 0 0 0 0 0 0 0 0 0 0 0 0 32 32 0 0 0 0 0 0 0 0 0 0 0 0 0 1:-0.804182 2:-0.989076 3:-0.989721 4:-0.960438 5:-0.966197 6:-0.732447 7:-0.811475 
-21.47760716949414 -3.553084972848698 -2.928689757695371 -12.60736714041061 -3.780163466250585 -8.782149282576162 -0.4317737627682715 1.657804737101063 2.136038310436712 3.968733535227304 2.541692821483177 6.242668763281361 19.25036860590664 3.86125439785391 15.31846689700653 13.37538695802955 13.18354240683054 0.6942804013766704 0.5037196911160676 13.71750015534908 0 1.174371274619865 0 0 3.034590620811386 2.645095418968765 31.85433709408185 14.80880060586695 0.5037185102712725 15.53946642066147 4.455174516209382 0 7.833443990919541 32 1.609519576056256 3.515390570427518 0 1:-0.762352 2:-0.97525 3:-0.982994 4:-0.918894 5:-0.966197 6:-0.72298 7:-0.811475 
0 0 0 0 0 0 0 0 0 0 11.11610479076028 0 0 0 7.882926716050068 0 0 0.3032670322264319 0 0 0 6.048188886444801 0 0 0 0 0 0 0 0 0 0 0 0 0 2.147070169266946 0 1:0.0118699 2:-0.843656 3:-0.986805 4:-0.729123 5:-0.957746 6:-0.628085 7:-0.811475 
0 0 0 0 0 0 0 0 0 0 17.13486283816324 0 0 0 0 0 0 0.3612748939609005 0.4933613125057247 0 0 12.75269318314343 0 0 0 0 0 0 0.4933614153741818 0 0 0 0 0 0 0 0.04447881790374598 1:0.178609 2:-0.87873 3:-0.99694 4:-0.794363 5:-0.966197 6:-0.764679 7:-0.819672 
-0.9275185855372262 -1.182356434000055 -4.173225577593499 -1.28098220879463 -4.27025500275999 -1.562492603684338 0 -0.4873211083855448 32 0.7421319202662038 28.41324949146121 2.290955529312383 1.086062905049007 2.451448578151971 27.46043490144918 1.187301420298421 13.66598949873825 0.4838793352079141 0.1072942228038698 1.015357047874193 0.2118929767137656 0 0.6780085750683661 0.8495863440286909 0 2.481111786439779 0.7848131200577675 1.274150918485311 0.1072959811957568 0.9990859647584396 1.666254020909981 0.5362879223511703 1.628428080990486 0.5609091925545069 4.816946060488259 10.49858780682961 0.4934050251638956 1:-0.0654289 2:-0.86558 3:-0.991483 4:-0.89666 5:-0.966197 6:-0.749577 7:-0.811475 
-0.9414994162151963 -1.004321398805708 -0.1068773660140582 -1.063430189185895 -8.842481715602469 -1.03364056317385 -14.44248101550297 -1.170483628715518 32 0.7368411410822118 32 0.9649396523147095 1.017428267698917 1.466796255484677 0 1.218990288957786 0 0 0.4444265577245894 1.325289632639836 1.361109557058732 0 0.8454855711410797 0.9715357624575682 2.335962174425732 9.573939086030201 1.028360451331714 0.9125502455054133 0.4444244170079148 1.448010863914754 2.842243934391181 0.7381697567670753 1.029372207073153 1.224147456622927 0 0 0.6922504250133233 1:-0.103123 2:-0.902578 3:-0.998239 4:-0.765866 5:-0.96338 6:-0.652654 7:-0.811475 
0 0 0 0 0 0 0 0 0 0 1.652774739934985 0 0 0 0 0 0 0 0 0 0 0 0 0 0 0 0 0 0 0 0 0 0 0 0 0 0 1:0.0194681 2:-0.893836 3:-0.996275 4:-0.803132 5:-0.96338 6:-0.664826 7:-0.819672 
-2.617421848490404 0 -4.155958874478137 -3.602885019690307 -19.93101817083196 -4.143841336168475 0 -2.136038310436712 0 1.814192017484879 9.446667921893313 6.099120243132806 3.153396864086153 3.844749674325706 0 3.778351005347773 32 0 0.4791479453291551 3.624611958494547 1.741268678023878 0 1.915932013781697 2.525274394465751 0 13.6341129902841 2.474700689269832 3.282392889759817 0.4791481994950856 3.920753975329738 10.51553869113095 1.460292450762984 4.36210660750412 2.392353465424185 0 0 1.379446106527108 1:-0.204241 2:-0.919841 3:-0.969655 4:-0.895094 5:-0.966197 6:-0.741237 7:-0.819672 
0 0 0 0 0 0 -22.5934103471626 0 -14.85576191005108 0 0 0 0 0 0 0 0 0.08030393351947444 0.4671214906857415 0 0 3.360980569086002 0 0 1.193324355727316 0 0 0 0.4671189819617684 0 0 0 0 0 0 0 0 1:-0.127657 2:-0.937983 3:-0.971445 4:-0.753549 5:-0.969014 6:-0.738758 7:-0.836066 
0 0 0 0 0 0 0 0 -32 0 32 0 0 0 16.89852922543271 0 0 0.3353730478655589 0.06654050397615166 0 0 1.919344632852 0 0 0 0 0 0 0.06654249291872821 0 0 0 0 0 0 0 0 1:-0.089755 2:-0.926015 3:-0.994716 4:-0.849374 5:-0.969014 6:-0.722078 7:-0.819672 
0 -2.874337212276587 -2.521025543588543 0 -21.24096938899545 0 0 0 -9.239582917343212 0 0 0 0 3.215924007708998 10.40912941633129 0 9.433134326043962 0.677630023072991 0 0 0.1650184683378441 0 0 0 1.279199386421568 18.36588700971591 0 0 0 0 0 0 0 0 4.56432715605026 14.27707338475043 0 1:-0.198502 2:-0.890109 3:-0.980742 4:-0.852714 5:-0.966197 6:-0.719148 7:-0.819672 
0 0 0 0 0 0 0 0 -7.904655172605705 0 32 0 0 0 0 0 0 0 0 0 0 0 0 0 0 0 0 0 0 0 0 0 0 0 0 0 0 1:-0.157719 2:-0.915665 3:-0.965411 4:-0.870355 5:-0.966197 6:-0.734926 7:-0.819672 
-4.070039586368782 -2.754675927066145 -2.257156764427549 -4.063633791791164 -2.533961320319278 -3.429802694334244 -4.553797119703158 -4.261253620952185 -1.478973061348416 -1.814192017484879 2.110507810386608 3.168642234357899 5.75535280026538 2.975942131557405 3.474874688872793 4.405658876092209 4.391617475061058 1.019628730387001 1.000000374850997 5.343833361946803 3.597651488834279 1.136136177884319 3.989242950018713 4.095176519138726 2.140165144058513 2.068038668632657 4.148693266231056 4.115848720649166 1.00000000000058 4.212712500448836 2.986144871993625 3.315071595100547 4.480087672614138 4.28113723627914 1.530282060544739 2.642062878642379 2.936134429368737 1:-0.727654 2:-0.941718 3:-0.628006 4:-0.991545 5:-0.966197 6:-0.733123 7:-0.811475 
-2.706503635343894 -2.679970891191993 -7.027902822870913 -3.912152439735426 -32 -4.662159091692257 -7.699683788052303 -2.080330272581274 -25.27835956984524 -32 -1.608034310023029 7.472074687125459 3.36115610121865 7.437797271048518 24.99511670520082 4.189023637878332 32 0.5161434590656793 0.5053544065881296 3.909180208225654 1.77543418027177 0 1.804823978719573 2.595191641436298 1.639875191386202 29.79795184394471 2.51612850318562 3.539821344789636 0.5053573619488435 4.44147079598552 14.27798200127102 1.231269701671096 4.873572738319504 2.410920764962901 3.601554774221297 9.413900989008011 1.129079397604602 1:-0.240058 2:-0.934212 3:-0.98259 4:-0.904071 5:-0.966197 6:-0.7205 7:-0.803279 
0 0 0 0 -4.064812651741003 0 -6.241576508422502 0 -29.48266189863134 -11.02373881626598 0 0 0 0 6.999191112666728 0 0 0 0.07549858321595443 0 0 7.071717752466793 0 0 0.6364264166284315 2.202048156055286 0 0 0.07549263259953022 0 0 0 0 0 0 2.388170252021863 0 1:-0.00325237 2:-0.84491 3:-0.930735 4:-0.631106 5:-0.949296 6:-0.596303 7:-0.745902 
-0.4214127502741041 -0.452804540826909 -0.3660121746428207 -0.3729707681461019 0 -0.3434228707528727 -0.5624685761264058 -0.4613625489019031 0 0 -0.502473500363578 0.2524579836816375 0.391493736648391 0.3630906090585403 0 0.3587023705884155 0.7120988991888604 0.4262505838914051 0.5253074392627812 0.3762610250217394 0.4861862722747607 1.839789595448529 0.4812753056995062 0.4275087001494718 0.8515698156707147 0 0.4332578089128151 0.383988358080553 0.5253081331258327 0.3459575353708625 0.1224408817544476 0.5377488050398729 0.339343143661333 0.4397311681175402 0 0 0.5511581579371174 1:0.660471 2:-0.696322 3:-0.926895 4:-0.509916 5:-1 6:-1 7:-0.893443 
0 0 -0.004826624251477093 0 0 0 0 0 -3.555970391843133 0 0 0 0 0 9.178152221731496 0 0.6256619183035442 0.5326763861206948 0.1983130186809505 0 0 0 0 0 0 0 0 0 0.1983148792051078 0 0 0 0 0 1.538628490946633 2.859019327962077 0 1:0.365489 2:-0.636005 3:-0.899495 4:-0.918894 5:-0.96338 6:-0.688944 7:-0.811475 
0 0 0 0 0 0 0 0 -32 0 0 0 0 0 0.8123071241907435 0 0 0 0 0 0 6.565977381293042 0 0 0 0 0 0 0 0 0 0 0 0 0 0 0 1:0.0782488 2:-0.969783 3:-0.953284 4:-0.895303 5:-0.966197 6:-0.755212 7:-0.819672 
0 0 0 0 0 0 0 0 0 -30.42292910562734 0 0 0 0 0 0 0 0 0 0 0 0 0 0 0 0 0 0 0 0 0 0 0 0 0 0 0 1:-0.0176012 2:-0.99188 3:-0.941447 4:-0.933299 5:-0.96338 6:-0.734475 7:-0.819672 
-12.36461776452181 -6.05837078615169 -13.05663613646216 -32 -18.05069193931334 -32 -9.693229164992125 -6.242668763281361 -3.255895181627092 -6.099120243132806 -3.168642234357899 -7.724532670807096 19.2029740934303 14.74265578797984 8.430378653706088 32 32 1.059153476154072 1.000000100751027 19.97749003936623 4.091828253226203 1.486745827603509 5.358432931660978 10.20446126952885 2.581355491833407 7.574028778862155 10.44693006680793 29.60991726202242 1.000000000000069 30.13506629737002 18.67762721374403 2.750463828431761 32 8.169903761262873 3.18751290748466 18.08036986934805 2.423016526472815 1:-0.486749 2:-0.896404 3:-0.987845 4:-0.988727 5:-0.966197 6:-0.737631 7:-0.811475 
-32 -5.194794064071295 -5.120950176302244 -32 -6.62494679689467 -28.10235107302464 -21.69643887729012 -19.25036860590664 -2.103491172747924 -3.153396864086153 -5.75535280026538 -3.752649837867041 -19.2029740934303 7.576922590563314 9.365175587002778 32 32 1.034689297518334 1.000000122738272 32 8.330472193526303 1.27839834454232 14.14018467886846 32 2.748675987763741 4.013776379767211 32 32 1.000000000000095 32 9.081582709434775 4.99442306032109 32 30.07143778947217 2.115255413456064 6.22528020385905 4.022111378710342 1:-0.629952 2:-0.936004 3:-0.920572 4:-0.977244 5:-0.966197 6:-0.740336 7:-0.811475 
-4.90973456403365 -8.744833150815026 -16.67866178749768 -12.18496918390736 -17.0922953729041 -12.78841869126394 -7.323422805218407 -3.86125439785391 -3.918244833636648 -7.060673682034704 -2.975942131557405 -7.800887880107058 -14.74265578797984 -7.576922590563314 9.460522821529866 11.41340597037873 22.52675289448225 1.096714267856803 1.000000296769773 12.49739544730297 3.250066300343948 1.632443256007583 3.19364545642825 4.333189214095585 2.937236619486215 8.947967839571195 4.864696939690655 8.353040752475957 1.000000000000247 8.928078196973955 11.529361800968 2.086880634377673 16.62610136469628 4.471488199895363 4.386977874771005 23.07664008614817 1.930287345292516 1:-0.437953 2:-0.795859 3:-0.913151 4:-0.872443 5:-0.969014 6:-0.794658 7:-0.795082 
0 -2.868655146566591 -1.455009176519913 0 -6.5942671922142 0 0 0 -2.754231515619708 -4.747963014526098 0 -8.386437373220131 0 0 -5.418878573865578 0 0 0 0 0 0 0 0 0 13.4184621765956 6.084882050324785 0 0 0 0 3.334599883296087 0 0 0 0 4.480361488913784 0 1:-0.656248 2:-0.937255 3:-0.973639 4:-0.705115 5:-0.95493 6:-0.665051 7:-0.786885 
-7.462690023246932 -0.4256687766755785 -1.565634909427089 -7.759578885048126 0 -6.142126018468562 -13.5003255689376 -14.90541595812924 0 0 -2.721353465044555 0 -5.255819675132143 -7.703527377795099 -0.145109513810074 8.281308724239832 10.7933226952255 0.3341166005352559 0.3899821320567297 10.3600772603617 32 0 6.906587602588552 8.775790517873622 0 0 9.234181794471557 6.628942296715235 0.3900187381707709 9.884198518326901 2.780079041191673 4.338001305258122 5.872261709730804 14.49768976798136 0.942896681869045 0 3.658211946686899 1:-0.7153 2:-0.964735 3:-0.979385 4:-0.744259 5:-0.96338 6:-0.699313 7:-0.786885 
-1.138955404815033 -1.592702954007589 -4.065938890459135 -2.236767068324939 -9.448913123249868 -2.500775247139709 -6.855986017977776 -0.4130509388772877 -32 -22.5596956272379 -0.5252798588540214 -32 -3.174558978573942 -1.661648209207678 -3.896534733854216 2.391289260779055 8.633420823128059 0.6465568175568287 0.4502391708638897 2.417225428828329 0 4.090478304135249 0.3942086025484963 0.7230894791910035 0 8.198431473528355 1.044648689725967 1.808247775514254 0.4502609980224783 2.516062442320808 4.094397026188979 0.02231756695436129 2.554009108454509 0.896390016201688 5.398392012263416 20.92030195349027 0.02872339143151586 1:-0.0235732 2:-0.796875 3:-0.989173 4:-0.902818 5:-0.96338 6:-0.694804 7:-0.811475 
0 0 0 0 0 0 -1.056770486405972 0 -0.5891301018795415 0 -0.228241364974217 -1.598329790569653 0 0 0 0 0 0.5018412539613351 0.5244594112088495 0 0 0.7397454770762398 0 0 5.391135698168864 0 0 0 0.5243213872993814 0 0 0.2397964033708541 0 0 0.1151062485229502 0.8217873487602513 0.2814001369862817 1:-0.364652 2:-0.898134 3:-0.920629 4:0.0251566 5:-0.923944 6:-0.581427 7:-0.409836 
-29.6438193511909 -7.158229959816808 -7.479580877806256 -32 -9.254377505350055 -32 -17.28684224530914 -13.37538695802955 -2.406291709256206 -3.778351005347773 -4.405658876092209 -4.547726008466747 -32 -32 -11.41340597037873 -10.67259798501889 32 1.047317500743833 1.000000133234213 32 7.022639957811186 1.339400862739644 9.802587073746034 20.35346169383945 2.911594369696463 4.955684164788777 28.10352792979317 32 1.000000000000112 32 11.23780816999637 4.00508094685512 32 19.43884033521922 2.490253448341377 9.465946621763205 3.391025913111461 1:-0.589918 2:-0.892247 3:-0.953544 4:-0.955637 5:-0.966197 6:-0.726586 7:-0.811475 
-21.16755456003131 0 0 -11.77695178024246 0 -17.26692604833423 -1.925368196805464 -12.47697480360074 0 0 0 0 -7.243602010021491 -9.382550856243325 0 0 -18.28866889715048 0 0 4.555211536224354 0 0 0 32 0 0 3.664983128194376 20.86986990871357 0 22.26852292177477 0 0 12.03939605456698 0 0 0 0 1:-0.654304 2:-0.969967 3:-0.99847 4:-0.999165 5:-0.966197 6:-0.734926 7:-0.811475 
0 0 -0.1370078464952904 0 -24.50297340569749 0 -1.682871042269669 0 -13.66598949873825 -25.56719969500898 -0.4321927433460429 -17.95977965690893 0 0 0 -5.516535155494105 0 0.732752385525186 0.5607358078015015 0 0 1.568794519566359 0 0 0 5.992957145143451 0 0 0.5607356801738591 0 0 0 0 0 8.065794730402468 5.483199376180219 0 1:-0.229282 2:-0.825407 3:-0.990154 4:-0.992693 5:-0.966197 6:-0.731996 7:-0.811475 
-10.45358296480151 -1.720962547718267 0 -8.03870649132152 0 0 -32 -32 0 0 -3.675344592937859 0 0 -12.81557637573698 -1.540947010850518 -5.744169963689484 -2.868637233942653 0.48164766639128 0.5594952424279814 14.39867649481455 20.45988787063287 0 32 32 1.18631463750029 0 25.63324908117918 3.07475305923675 0.5594952580842529 0 0.01381520680134741 10.89683634041962 3.224159615840475 28.97430346116232 0 0 7.488966003022865 1:-0.73496 2:-0.983984 3:-0.993042 4:-0.992171 5:-0.966197 6:-0.734025 7:-0.811475 
0 0 0 0 -32 0 0 0 0 -15.86593463103499 -0.2840801387771558 -15.37798116058348 0 0 -5.35089971113055 -8.166038399169976 -1.381494555346159 0 0 7.969276546161165 0 0.7077456285653894 0 0 2.554201181713331 26.00704285485655 0 0 0 8.512825717391594 20.16289990990281 0 0 3.025696538837683 0 0 0 1:-0.374624 2:-0.958763 3:-0.969539 4:-0.845929 5:-0.96338 6:-0.699989 7:-0.803279 
0 0 0 0 -21.26317794149894 0 0 0 0 0 0 0 -4.430771239582802 -6.674027272429353 0 0 0 0 0 0 0 0 0 0.9527233443758487 0 0 0 0 0 1.218651360833631 11.82328488329583 0 0 0 0 0 0 1:-0.470225 2:-0.953749 3:-0.983023 4:-0.976827 5:-0.966197 6:-0.732672 7:-0.811475 
0 0 0 0 0 0 0 0 0 0 0 0 -20.32562675039571 0 0 0 0 0 0 0 0 0 0 0 0 0 0 0 0 0 0 0 0 0 0 0 0 1:-0.4227 2:-0.871507 3:-0.999798 4:-0.991754 5:-0.966197 6:-0.73132 7:-0.811475 
-0.3788624751671774 -5.626977940766516 -31.86299215350471 -12.18434172843602 -1.185974190771383 -14.73307395166577 0 0 0 0 0 0 0 -3.127845495590349 -15.63490617250118 0 -9.461199313560707 0 0 5.076835422799937 0 0 0 0 0 0 2.701767790626448 8.055377032049684 0 0 0 0 16.73644432959254 0 0 32 0 1:-0.384955 2:-0.82643 3:-0.988047 4:-0.979436 5:-0.966197 6:-0.725008 7:-0.811475 
-1.027161926762249 -1.150465167975987 -1.154554685227298 -1.0527765331307 -1.075122565539158 -1.061814390745379 -1.272020003535398 -1.021296855015525 -1.148421261395247 -1.093307004458024 -1.019628730387001 -1.475070429077779 -1.059153476154072 -1.034689297518334 -1.096714267856803 -1.48251467205342 -1.047317500743833 -1.214400051916466 1.000000023131002 1.041750891715477 1.024748796169324 1.049820952320971 1.018483537292661 1.032407097012735 1.415336911394995 1.059185973469823 1.027747530050949 1.045767815208935 1.00000000000005 1.034616477590812 1.041323179983745 1.009882933065172 1.061831178721784 1.021915581700982 1.387484016579298 2.07310971752024 1.009763119645774 1:0.000627425 2:0.201196 3:-1 4:-1 5:-0.966197 6:-0.734701 7:-0.811475 
-1.000000064685022 -1.000000230976664 -1.000000122326043 -1.000000117107596 -1.007513882813249 -1.000000101662987 -1.222369117933829 -1.003718588609358 -1.045082093034184 -1.012809939991048 -1.000000374850997 -1.304473447747816 -1.000000100751027 -1.000000122738272 -1.000000296769773 -1.364680714129469 -1.000000133234213 -1.120231050229483 -1.000000023131002 1.000000197347429 1.010004676933859 1.000000364514212 1.000000050697433 1.014171125290729 1.406094862491767 1.00000034701933 1.000000074915937 1.000000088926513 1.000000245849012 1.000000129396187 1.000000203500106 1.000000037135 1.000000157398585 1.000000097006835 1.000000133068756 1.388713981688107 1.000000032187466 1:-0.253761 2:-0.650446 3:0.377884 4:0.380585 5:-0.267606 6:-0.0812577 7:1 
-19.77489185653163 -6.210462256482089 -5.937841225932357 -32 -8.68908525728207 -28.07122372696456 -16.13723976850258 -13.71750015534908 -2.34064668051403 -3.624611958494547 -5.343833361946803 -4.285441233247394 -19.97749003936623 -32 -12.49739544730297 -12.77730268919003 -32 -32 -1.041750891715477 -1.000000197347429 8.070695243657102 1.340281692796244 8.832517058589101 15.94651423400783 3.21338990621527 4.941266629105238 20.40758198142091 32 1.000000000000161 32 11.63942326037021 3.977779537543145 32 19.17882708527192 2.303520041409829 7.324141441868193 3.356077498647244 1:-0.600044 2:-0.908263 3:-0.909109 4:-0.912004 5:-0.969014 6:-0.760848 7:-0.803279 
0 0 0 -1.326053421520943 0 -0.9803428229694604 -0.3582044935108291 -32 0 0 -2.788820201691806 0 0 0 0 0 -0.9281747805378372 0 0 0 0 0 0 0 0 0 0 2.819132678790674 0 0 0 0 0.63381762147645 0 0 0 0 1:-0.863319 2:-0.967343 3:-0.993966 4:-0.89238 5:-0.966197 6:-0.729291 7:-0.811475 
-3.747116775245846 -1.934488190885604 -2.382281630426927 -5.635840638569108 -3.181306740426575 -4.299668438648969 0 -1.029730023439855 -1.573002533772498 -1.906287146361722 0 -2.261620452546531 -4.091828253226203 -5.337844293082152 -3.250066300343948 -32 -6.094465177273349 -2.543734046993243 -0.5514539921883253 -0.5100054049595667 -8.070695243657102 1.15961300375506 0 0 3.863865269865421 2.369051606449634 5.940704422398831 3.581797133672183 0.500000000001839 7.979696435841725 3.53796542087687 0 4.21459834841067 16.58166522032976 1.471683419419462 2.887987748037399 0 1:-0.804328 2:-0.981221 3:-0.996564 4:-0.810125 5:-0.966197 6:-0.732898 7:-0.819672 
-8.371412332942942 0 0 0 0 0 -32 -32 0 0 0 0 0 -2.992627900444151 0 0 0 -17.91615382363962 0 0 0 0 32 32 0 0 10.62884852979923 0.7550628490870073 0 0 0 0 0 11.12148840265532 0 0 0 1:-0.874359 2:-0.979308 3:-0.997401 4:-0.915762 5:-0.966197 6:-0.730193 7:-0.811475 
0 0 0 0 0 0 0 -10.9126785718575 0 0 0 0 0 0 0 0 0 0 -0.4732948039809988 -0.4999992719742921 0 0 0 32 0 0 0 0 0.5100045800191664 0 0 32 0 0 0 0 28.17550306152954 1:-0.892705 2:-0.971166 3:-0.99873 4:-0.921608 5:-0.966197 6:-0.729967 7:-0.811475 
0 -1.077032388775995 0 0 0 0 0 0 0 0 -0.808831287142473 0 0 0 0 0 0 0 0 0 0 0 0 0 0 0 0 0 0 0 0 0 0 0 0 0 0 1:-0.849866 2:-0.965868 3:-0.991858 4:-0.867015 5:-0.96338 6:-0.726586 7:-0.819672 
-1.220535734957643 -1.290539019639506 -1.596640597992591 -1.321513357100891 -2.564336630688159 -1.364617708616998 -4.498557166092947 -1.174371274619865 -18.80088206958823 -5.280325201938001 -1.136136177884319 -15.47748472920837 -1.486745827603509 -1.27839834454232 -1.632443256007583 -4.830223781211489 -1.339400862739644 -2.276540148131748 -1.049820952320971 -1.000000364514212 -1.340281692796244 -1.15961300375506 1.131834287244385 1.214093872989918 1.721698229074707 2.569481077792845 1.206813802975455 1.284333715010117 1.000000000000929 1.365095097132503 1.793604024326504 1.064764475279575 1.382264156943829 1.208403942549873 1.757880051403997 3.160943495352046 1.05168904476226 1:0.179072 2:-0.971582 3:-0.984553 4:-0.663152 5:-0.95493 6:-0.683534 7:-0.827869 
-32 -3.241282632651894 -2.718090631124515 -9.740694293490883 -3.024803720224493 -7.45395640622362 -32 -32 -1.523494146209446 -1.915932013781697 -3.989242950018713 -2.286099284419079 -5.358432931660978 -14.14018467886846 -3.19364545642825 -7.300796205137049 -9.802587073746034 -32 -1.018483537292661 -1.000000050697433 -8.832517058589101 -32 -1.131834287244385 32 2.428153317569709 2.233761004895917 32 12.89723701183391 1.000000000000029 10.0432181464015 3.506443270420061 21.09853316968148 6.468374117583557 32 1.552552345798011 3.234232476659722 12.86520351175583 1:-0.799918 2:-0.966589 3:-1 4:-0.999791 5:-0.966197 6:-0.734701 7:-0.811475 
0 0 0 0 0 0 -15.22408081220509 -32 0 0 -1.217943547254168 0 0 0 0 0 0 0 -0.4303824615188563 -0.5082882426960467 0 -32 0 0 0 0 0 0 0.4999999999999164 0 0 32 0 0 0 0 22.15381364996447 1:-0.857662 2:-0.99982 3:-0.999769 4:-0.997495 5:-0.966197 6:-0.734701 7:-0.811475 
0 0 0 0 0 0 0 -32 0 0 0 0 0 0 0 0 0 -0.9527233443758487 0 0 0 -32 0 -20.82570081630098 0 0 0 0 0 0 0 0 0 0 0 0 0 1:-0.852035 2:-0.999849 3:-0.999711 4:-0.997286 5:-0.966197 6:-0.734701 7:-0.811475 
0 0 0 0 0 0 -17.31529523396887 -32 0 0 0 0 0 0 0 -9.498879997064623 0 -32 0 0 0 0 0 -4.200351943804754 2.661004729754863 0 18.9639872576888 0 0 0 0 0 0 32 0 0 0 1:-0.729467 2:-0.998742 3:-0.999567 4:-0.976931 5:-0.966197 6:-0.734475 7:-0.811475 
-32 -3.501628485695102 -3.519008104290672 -17.48140182845378 -4.644735337656034 -13.23390429463339 -1.495122668421342 -31.0727294440795 -1.821122106486259 -2.525274394465751 -2.877232971884558 -3.02270034158577 -10.20446126952885 -32 -4.333189214095585 0 -20.35346169383945 -32 -0.6020246354938788 -0.505882882594682 -15.94651423400783 0 -1.214093872989918 -6.973947239894261 0 3.091797011774367 13.0360127423112 27.64361825704263 0.5139399915934749 29.05145627705628 5.937349506743089 0 10.89032184358695 0 1.752170995149712 4.236828659934345 0 1:-0.68829 2:-1 3:-0.999856 4:-0.996764 5:-0.966197 6:-0.734701 7:-0.811475 
-1.953648487708158 -1.803769736755191 -1.552641644954923 -2.215496097774722 -3.074470690275644 -2.047088045595852 -4.329206668525612 -2.412140515162061 -1.672527953700081 -1.801978052692723 -1.467631426676731 -2.000481090432529 -1.938933311207665 -2.114493256771119 -2.309582250345555 -15.59857720903646 -2.284071776916811 -2.984352382250298 -0.4676294454644678 -0.4219415592446531 -2.597238934169162 -3.265677004790988 -0.9376505428601661 -1.777207457482023 -2.023230727162947 2.355795306877419 2.099955592571143 1.985713296139373 0.4261502885182331 2.469568773369493 2.434392688610904 1.462535825910141 2.058501865148509 2.452261080454106 1.070769559064947 2.920807076861328 1.369289637662588 1:-0.606815 2:-0.959764 3:-0.963996 4:-0.484447 5:-0.943662 6:-0.632142 7:-0.737705 
0 0 0 0 0 0 0 0 0 0 0 0 0 0 0 0 0 0 -0.1624002975801466 -0.188620406791638 0 0 -0.06180193511223505 0 0 0 0 0 0.1854786326096203 0 0 0 0 0 0 0 0 1:-0.55996 2:-0.936324 3:-0.91959 4:-0.27119 5:-0.904225 6:-0.550096 7:-0.631148 
-0.3769703680725259 -0.3743483126707811 -0.3765172137714349 -0.3774736064190087 -0.3736255425781609 -0.3768500028652554 -0.7081928268316756 -0.3795211071281103 -0.3648200998882992 -0.3769849603918036 -0.3787559637565435 -0.6066254722679024 -0.3758350914234477 -0.3771831448113769 -0.3744820778776687 -0.2488586232884973 -0.3778578598138971 -0.4554431164629183 -0.4232560362137559 -0.4367423642911812 -0.3796126470163785 -0.3873787464886191 -0.3824269777531366 -0.3771569343212607 -0.3770937127977235 0.3701122100226014 0.3769222609604094 0.3771969556971428 0.4262658865204029 0.37883710429718 0.3762047709039038 0.3784265687777341 0.3763163908039428 0.3793575387333257 0.3867238673784859 0.6583353354237154 0.3808695620078975 1:-0.164808 2:-0.927199 3:-0.855378 4:0.894676 5:-0.690141 6:-0.230474 7:0.352459 
-0.2643484217406672 -0.2759507106977148 -0.2898688549846279 -0.2526874879723527 -0.2346662653968652 -0.2603641936707626 -0.5869707548292481 -0.2429289985212148 -0.298614120837352 -0.2935607290643579 -0.2937777536252386 -0.520764860984917 -0.2665870892022946 -0.2569995861812446 -0.2531722912629918 -2.962162042439511 -0.2496647329657556 -0.3007203205004041 -0.3620511321366242 -0.3587905321642949 -0.2365383250297287 -0.2108095185858138 -0.3398187733491684 -0.2737889257664255 -0.2606802897941916 0.2584682938326526 0.2573995624574391 0.2630361616118583 0.3623641645173829 0.2418269969970348 0.2469136098302836 0.2935064040314859 0.2603915612013308 0.2415413553490459 0.3258504746801981 0.5416217305516407 0.2990946845124107 1:-0.28609 2:-0.89717 3:-0.88119 4:0.51785 5:-0.760563 6:-0.241294 7:-0.106557 
-3.192490807221478 -3.093190735333621 -6.09008947528331 -4.556946979896944 -32 -5.122244733715093 -13.07619483145428 -2.645095418968765 -12.05505087246998 -32 -2.068038668632657 -32 -7.574028778862155 -4.013776379767211 -8.947967839571195 -14.28331352385314 -4.955684164788777 -32 -1.059185973469823 -1.00000034701933 -4.941266629105238 -2.369051606449634 -2.569481077792845 -2.233761004895917 -3.091797011774367 -2.984375810732673 3.038566862461568 4.02413345645995 1.000000000000386 5.45767534064896 21.75584542227997 1.62322270915159 5.518841022122119 3.031944979319535 3.289350929640911 10.8409177014633 1.511320593164752 1:-0.284861 2:-0.951802 3:-0.956085 4:-0.831733 5:-0.96338 6:-0.705398 7:-0.795082 
-32 -4.406831143867513 -3.87826066051405 -26.69762704959772 -4.627702193530734 -17.32519457935027 -32 -32 -1.813173571389481 -2.474700689269832 -4.148693266231056 -2.949386312098435 -10.44693006680793 -32 -4.864696939690655 -10.27883048419752 -28.10352792979317 -32 -1.027747530050949 -1.000000074915937 -20.40758198142091 -16.56955295219806 -1.206813802975455 -32 -32 -2.734277415988991 -3.038566862461568 32 1.00000000000005 28.234679555575 5.510214966887244 8.27392723160632 13.32203868955452 32 1.834376931342409 4.662435122473969 6.226848554467058 1:-0.705372 2:-0.941957 3:-0.99821 4:-0.973486 5:-0.966197 6:-0.727713 7:-0.811475 
-32 -6.70786249558699 -6.824844930715108 -32 -6.854107443600468 -32 -19.9635895569983 -14.80880060586695 -2.186701163990724 -3.282392889759817 -4.115848720649166 -3.923809702870189 -29.60991726202242 -32 -8.353040752475957 -8.437190072229491 -32 -32 -1.045767815208935 -1.000000088926513 -32 -7.155992661549864 -1.284333715010117 -12.89723701183391 -27.64361825704263 -2.625946413448375 -4.02413345645995 -32 1.000000000000062 32 8.027157154087185 4.586788622220473 32 21.17062977301521 2.378075214076459 8.422515217212805 3.844800133467412 1:-0.616953 2:-0.88629 3:-0.979905 4:-0.99499 5:-0.966197 6:-0.733123 7:-0.811475 
-1.000000000000038 -1.000000000000351 -1.000000000000104 -1.000000000000088 -1.007513507539867 -1.000000000000076 -1.22236838939529 -1.003718510270175 -1.045081813577854 -1.012809674375582 -1.00000000000058 -1.304473006879314 -1.000000000000069 -1.000000000000095 -1.000000000000247 -1.36460112349263 -1.000000000000112 -1.120230938258112 -1.00000000000005 -1.000000245849012 -1.000000000000161 -1.010004580021005 -1.000000000000929 -1.000000000000029 -1.013939991593391 -1.400258972165639 -1.000000000000386 -1.00000000000005 -1.000000000000062 1.000000000000102 1.000000000000205 1.000000000000021 1.000000000000145 1.000000000000073 1.000000000000139 1.388868427198516 1.000000000000018 1:-0.198766 2:-0.406308 3:1 4:1 5:1 6:1 7:-1 
-32 -4.791436812794517 -5.597669008090608 -32 -10.47905995104381 -32 -18.11814958988355 -15.53946642066147 -2.447096828673193 -3.920753975329738 -4.212712500448836 -4.787428331356384 -30.13506629737002 -32 -8.928078196973955 -12.40026096064771 -32 -32 -1.034616477590812 -1.000000129396187 -32 -7.979696435841725 -1.365095097132503 -10.0432181464015 -29.05145627705628 -3.090232874663708 -5.45767534064896 -28.234679555575 -32 -1.000000000000102 15.46669223365771 4.034871111613483 31.91034709687482 25.91103842049258 2.202427483084572 7.014668192603915 3.324254380550797 1:-0.582949 2:-0.961902 3:-0.961542 4:-0.937683 5:-0.966197 6:-0.731996 7:-0.811475 
-6.096341079660205 -3.600803382827198 -6.323100748081367 -9.169175309511019 -32 -9.895569670649341 -10.28955980365408 -4.455174516209382 -4.508497955301161 -10.51553869113095 -2.986144871993625 -14.40042288302547 -18.67762721374403 -9.081582709434775 -11.529361800968 -10.20907595067674 -11.23780816999637 -32 -1.041323179983745 -1.000000203500106 -11.63942326037021 -3.53796542087687 -1.793604024326504 -3.506443270420061 -5.937349506743089 -3.057511069345091 -21.75584542227997 -5.510214966887244 -8.027157154087185 -1.000000000000205 -15.46669223365771 2.171078582663817 11.84505397524693 5.557515252577651 2.664246532292041 8.436530774401275 1.934396697835837 1:-0.411258 2:-0.993642 3:-0.930533 4:-0.894154 5:-0.969014 6:-0.730193 7:-0.819672 
-7.147221408074378 -2.274972063236277 -1.852381237608144 -4.027528089348182 -1.967471871067225 -3.398697057978064 -19.57455725341358 -32 -1.274457679118246 -1.460292450762984 -3.315071595100547 -1.769018506710969 -2.750463828431761 -4.99442306032109 -2.086880634377673 -4.600115275583336 -4.00508094685512 -10.89683634041962 -1.009882933065172 -1.000000037135 -3.977779537543145 -32 -1.064764475279575 -21.09853316968148 -32 -2.134468798719361 -1.62322270915159 -8.27392723160632 -4.586788622220473 -1.000000000000021 -4.034871111613483 -2.171078582663817 3.198296195740756 8.786164365196408 1.296882266219439 2.23683935263039 32 1:-0.954032 2:-0.982759 3:-0.983716 4:-0.999061 5:-0.966197 6:-0.734475 7:-0.811475 
-14.19203709828728 -9.18382131164322 -11.08422501935767 -32 -11.15131869378205 -32 -11.01635572234103 -7.833443990919541 -2.657800288063639 -4.36210660750412 -4.480087672614138 -5.212915881980837 -32 -32 -16.62610136469628 -8.426270818185314 -32 -32 -1.061831178721784 -1.000000157398585 -32 -4.84841596988712 -1.382264156943829 -6.468374117583557 -10.89032184358695 -2.695209817153783 -5.518841022122119 -13.32203868955452 -32 -1.000000000000145 -31.91034709687482 -11.84505397524693 -3.198296195740756 10.06894954067048 2.999485283009423 14.30162705232563 2.803019142050276 1:-0.546054 2:-0.855076 3:-0.920312 4:-0.974843 5:-0.966197 6:-0.723881 7:-0.811475 
-32 -3.76397782519053 -3.303599157698407 -17.2634052829847 -4.553461707256106 -11.5485197475975 -32 -32 -1.785056649177434 -2.392353465424185 -4.28113723627914 -2.850651933080441 -8.169903761262873 -30.07143778947217 -4.471488199895363 -15.39407978418305 -19.43884033521922 -32 -1.021915581700982 -1.000000097006835 -19.17882708527192 -27.70315362298508 -1.208403942549873 -32 -32 -3.073159974536478 -3.031944979319535 -32 -21.17062977301521 -1.000000000000073 -25.91103842049258 -5.557515252577651 -8.786164365196408 -10.06894954067048 1.702895590661529 3.987220660445431 6.378223761495444 1:-0.719398 2:-0.980728 3:-0.984553 4:-0.926514 5:-0.966197 6:-0.724783 7:-0.811475 
-1.865198274127364 -3.953636275801286 -9.033447068838427 -2.571308720589225 -3.944114421382899 -2.936428891973993 -2.698264804326878 -1.609519576056256 -4.816946060488259 -4.56432715605026 -1.530282060544739 -5.140183265167931 -3.18751290748466 -2.115255413456064 -4.386977874771005 -6.456394942655411 -2.490253448341377 -8.065794730402468 -1.387484016579298 -1.000000133068756 -2.303520041409829 -1.471683419419462 -1.757880051403997 -1.552552345798011 -1.752170995149712 -1.783343901123631 -3.289350929640911 -1.834376931342409 -2.378075214076459 -1.000000000000139 -2.202427483084572 -2.664246532292041 -1.296882266219439 -2.999485283009423 -1.702895590661529 32 1.265537732332221 1:-0.200871 2:-0.570868 3:-0.966854 4:-0.99833 5:-0.966197 6:-0.735377 7:-0.811475 
0 -1.00761402283365 0 0 -5.309409415659637 0 -5.516548188721408 0 -3.18865398726469 -5.980007116542098 0 -5.211401002273916 0 0 -4.042097929199191 -8.634343925598561 0 -2.540412584777525 0 -0.251480839549348 0 -0.3314786845961451 0 0 0 -3.036689984071091 -5.830946399916183 0 0 -0.2511022307689101 0 -1.932908743247674 0 0 0 0 0 1:-0.312609 2:-0.745193 3:-0.962899 4:-0.737996 5:-0.95493 6:-0.591795 7:-0.803279 
-4.314602968240106 -9.268035551731376 -30.44970213489037 -9.675727073639092 -12.36659499833283 -14.55753152842274 -1.861212164376552 -2.973963940100735 0 -3.488900319920703 -2.083002249821182 -1.58722164761299 -17.57357723387918 -5.703530385655535 -18.79031976847604 -0.03206849291617082 -8.952497668093338 -32 0 -0.1816464314560903 -6.805920623149866 -2.026179514038974 0 -2.688500528186833 -3.703426917866242 0 -4.327647450278499 -4.132450723005753 -7.907317893533018 -0.1819766251354059 -6.495575322615356 -6.10322629684348 -1.663474945892912 -13.79290465922432 -3.451394908892353 -12.28076672074913 1.535447449047775 1:-0.401872 2:-0.749983 3:-0.991338 4:-0.976514 5:-0.966197 6:-0.729517 7:-0.811475 
0 0 -1.550297865109634 0 0 0 0 0 0 0 0 0 0 0 0 0 0 0 -1.452597877193155 -0.3449787875550477 0 0 0 0 0 0 0 0 0 -0.3450966965213684 0 0 0 0 0 -14.71721777605983 0 1:-0.0268922 2:-0.449362 3:-0.990039 4:-0.992067 5:-0.966197 6:-0.740561 7:-0.811475 
0 0 0 0 0 0 0 0 0 0 0 0 0 0 0 0 0 0 0 0 0 0 -1.572281896236475 0 0 0 0 0 0 0 0 0 0 0 0 0 0 1:-0.164654 2:-0.659316 3:-0.944969 4:-0.728497 5:-0.952113 6:-0.601938 7:-0.827869 
0 0 0 0 0 0 0 0 -9.143782010218418 -4.790320824633133 0 -6.880253881217223 0 0 0 -16.23332591295609 0 -2.664193860374484 0 0 0 0 -1.088166697090803 0 0 0 -0.404073748468034 0 0 0 0 0 0 0 0 -5.002015503191038 0 1:-0.066 2:-0.647966 3:-0.996275 4:-0.940605 5:-0.966197 6:-0.742815 7:-0.811475 
-0.5287183602768002 -0.4410330431681079 0 -0.5124536817856783 -0.214817067547341 -0.5082510359158914 -1.156908540552398 -0.5414266303267831 -0.3132219786134485 -0.0178451236544912 -0.5590606288211976 -0.9822140378878235 -0.506792635468868 -0.5217498182035154 -0.2442223884729384 -1.322712459693478 -0.5134489536698668 -0.2785929310282095 -0.6205118403270846 -0.610607923127621 -0.5182208187183266 -0.5303295494022797 -0.5004949020247678 -0.5457319484728891 -0.5334017420681025 -1.084074158765593 -0.2782501028005853 -0.5299843994682165 -0.5151973236797873 -0.6106928747728317 -0.5190928699885581 -0.4003957343101219 -0.5733644067374781 -0.508722393101309 -0.5358257515530782 0 0.5795029270353524 1:1 2:1 3:-0.963447 4:-0.786639 5:-0.957746 6:-0.401104 7:-0.795082 
-5.412642456289208 -2.194445483570974 -1.746626177359448 -3.460222901731925 -1.792206209273087 -2.979832881429506 -12.87907930776127 -17.0647745153583 -1.230134268080965 -1.379446106527108 -2.936134429368737 -1.68023755554172 -2.423016526472815 -4.022111378710342 -1.930287345292516 -3.968335475104697 -3.391025913111461 -7.488966003022865 -1.009763119645774 -1.000000032187466 -3.356077498647244 -28.17550306152954 -1.05168904476226 -12.86520351175583 -22.15381364996447 -2.049253884182896 -1.511320593164752 -6.226848554467058 -3.844800133467412 -1.000000000000018 -3.324254380550797 -1.934396697835837 -32 -2.803019142050276 -6.378223761495444 -1.265537732332221 -2.114950376083127 1:-1 2:-0.946905 3:-0.993995 4:-0.998539 5:-0.966197 6:-0.735152 7:-0.811475 
